digraph Tree {
node [shape=box, style="filled, rounded", color="black", fontname="helvetica"] ;
edge [fontname="helvetica"] ;
0 [label="x[1] <= 0.303\ngini = 0.5\nsamples = 7000\nvalue = [3488, 3512]", fillcolor="#fefeff"] ;
1 [label="x[0] <= -0.473\ngini = 0.363\nsamples = 3734\nvalue = [891, 2843]", fillcolor="#77bced"] ;
0 -> 1 [labeldistance=2.5, labelangle=45, headlabel="True"] ;
3 [label="x[0] <= -0.755\ngini = 0.188\nsamples = 429\nvalue = [384, 45]", fillcolor="#e89050"] ;
1 -> 3 ;
15 [label="gini = 0.046\nsamples = 300\nvalue = [293, 7]", fillcolor="#e6843e"] ;
3 -> 15 ;
16 [label="gini = 0.416\nsamples = 129\nvalue = [91, 38]", fillcolor="#f0b68c"] ;
3 -> 16 ;
4 [label="x[1] <= -0.151\ngini = 0.26\nsamples = 3305\nvalue = [507, 2798]", fillcolor="#5dafea"] ;
1 -> 4 ;
7 [label="gini = 0.11\nsamples = 1870\nvalue = [109, 1761]", fillcolor="#45a3e7"] ;
4 -> 7 ;
8 [label="x[0] <= 1.518\ngini = 0.401\nsamples = 1435\nvalue = [398, 1037]", fillcolor="#85c3ef"] ;
4 -> 8 ;
9 [label="x[1] <= 0.124\ngini = 0.459\nsamples = 1067\nvalue = [381, 686]", fillcolor="#a7d3f3"] ;
8 -> 9 ;
17 [label="gini = 0.414\nsamples = 628\nvalue = [184, 444]", fillcolor="#8bc6f0"] ;
9 -> 17 ;
18 [label="x[0] <= 0.556\ngini = 0.495\nsamples = 439\nvalue = [197, 242]", fillcolor="#daedfa"] ;
9 -> 18 ;
19 [label="gini = 0.449\nsamples = 220\nvalue = [75, 145]", fillcolor="#9fd0f2"] ;
18 -> 19 ;
20 [label="gini = 0.493\nsamples = 219\nvalue = [122, 97]", fillcolor="#fae5d6"] ;
18 -> 20 ;
10 [label="gini = 0.088\nsamples = 368\nvalue = [17, 351]", fillcolor="#43a2e6"] ;
8 -> 10 ;
2 [label="x[0] <= 1.487\ngini = 0.326\nsamples = 3266\nvalue = [2597, 669]", fillcolor="#eca16c"] ;
0 -> 2 [labeldistance=2.5, labelangle=-45, headlabel="False"] ;
5 [label="x[1] <= 0.629\ngini = 0.224\nsamples = 2934\nvalue = [2557, 377]", fillcolor="#e99456"] ;
2 -> 5 ;
11 [label="x[0] <= -0.593\ngini = 0.362\nsamples = 1023\nvalue = [780, 243]", fillcolor="#eda877"] ;
5 -> 11 ;
13 [label="gini = 0.03\nsamples = 259\nvalue = [255, 4]", fillcolor="#e5833c"] ;
11 -> 13 ;
14 [label="gini = 0.43\nsamples = 764\nvalue = [525, 239]", fillcolor="#f1ba93"] ;
11 -> 14 ;
12 [label="gini = 0.13\nsamples = 1911\nvalue = [1777, 134]", fillcolor="#e78b48"] ;
5 -> 12 ;
6 [label="x[0] <= 1.731\ngini = 0.212\nsamples = 332\nvalue = [40, 292]", fillcolor="#54aae9"] ;
2 -> 6 ;
21 [label="gini = 0.413\nsamples = 96\nvalue = [28, 68]", fillcolor="#8bc5f0"] ;
6 -> 21 ;
22 [label="gini = 0.097\nsamples = 236\nvalue = [12, 224]", fillcolor="#44a2e6"] ;
6 -> 22 ;
}